FANN_FLO_2.1
num_layers=3
learning_rate=0.700000
connection_rate=1.000000
network_type=0
learning_momentum=0.000000
training_algorithm=2
train_error_function=1
train_stop_function=0
cascade_output_change_fraction=0.010000
quickprop_decay=-0.000100
quickprop_mu=1.750000
rprop_increase_factor=1.200000
rprop_decrease_factor=0.500000
rprop_delta_min=0.000000
rprop_delta_max=50.000000
rprop_delta_zero=0.100000
cascade_output_stagnation_epochs=12
cascade_candidate_change_fraction=0.010000
cascade_candidate_stagnation_epochs=12
cascade_max_out_epochs=150
cascade_min_out_epochs=50
cascade_max_cand_epochs=150
cascade_min_cand_epochs=50
cascade_num_candidate_groups=2
bit_fail_limit=3.49999994039535522461e-01
cascade_candidate_limit=1.00000000000000000000e+03
cascade_weight_multiplier=4.00000005960464477539e-01
cascade_activation_functions_count=10
cascade_activation_functions=3 5 7 8 10 11 14 15 16 17 
cascade_activation_steepnesses_count=4
cascade_activation_steepnesses=2.50000000000000000000e-01 5.00000000000000000000e-01 7.50000000000000000000e-01 1.00000000000000000000e+00 
layer_sizes=7 37 4 
scale_included=0
neurons (num_inputs, activation_function, activation_steepness)=(0, 0, 0.00000000000000000000e+00) (0, 0, 0.00000000000000000000e+00) (0, 0, 0.00000000000000000000e+00) (0, 0, 0.00000000000000000000e+00) (0, 0, 0.00000000000000000000e+00) (0, 0, 0.00000000000000000000e+00) (0, 0, 0.00000000000000000000e+00) (7, 5, 5.00000000000000000000e-01) (7, 5, 5.00000000000000000000e-01) (7, 5, 5.00000000000000000000e-01) (7, 5, 5.00000000000000000000e-01) (7, 5, 5.00000000000000000000e-01) (7, 5, 5.00000000000000000000e-01) (7, 5, 5.00000000000000000000e-01) (7, 5, 5.00000000000000000000e-01) (7, 5, 5.00000000000000000000e-01) (7, 5, 5.00000000000000000000e-01) (7, 5, 5.00000000000000000000e-01) (7, 5, 5.00000000000000000000e-01) (7, 5, 5.00000000000000000000e-01) (7, 5, 5.00000000000000000000e-01) (7, 5, 5.00000000000000000000e-01) (7, 5, 5.00000000000000000000e-01) (7, 5, 5.00000000000000000000e-01) (7, 5, 5.00000000000000000000e-01) (7, 5, 5.00000000000000000000e-01) (7, 5, 5.00000000000000000000e-01) (7, 5, 5.00000000000000000000e-01) (7, 5, 5.00000000000000000000e-01) (7, 5, 5.00000000000000000000e-01) (7, 5, 5.00000000000000000000e-01) (7, 5, 5.00000000000000000000e-01) (7, 5, 5.00000000000000000000e-01) (7, 5, 5.00000000000000000000e-01) (7, 5, 5.00000000000000000000e-01) (7, 5, 5.00000000000000000000e-01) (7, 5, 5.00000000000000000000e-01) (7, 5, 5.00000000000000000000e-01) (7, 5, 5.00000000000000000000e-01) (7, 5, 5.00000000000000000000e-01) (7, 5, 5.00000000000000000000e-01) (7, 5, 5.00000000000000000000e-01) (7, 5, 5.00000000000000000000e-01) (0, 5, 0.00000000000000000000e+00) (37, 5, 5.00000000000000000000e-01) (37, 5, 5.00000000000000000000e-01) (37, 5, 5.00000000000000000000e-01) (0, 5, 0.00000000000000000000e+00) 
connections (connected_to_neuron, weight)=(0, 3.18598896265029907227e-02) (1, -6.87579512596130371094e-01) (2, -2.91476041078567504883e-01) (3, -1.83928757905960083008e-02) (4, 4.93294708430767059326e-02) (5, 2.60017156600952148438e-01) (6, 5.51517248153686523438e-01) (0, 1.75902068614959716797e-01) (1, 2.18285918235778808594e+00) (2, 1.40698403120040893555e-01) (3, 5.72482824325561523438e-01) (4, 1.35770726203918457031e+00) (5, 1.71437096595764160156e+00) (6, 7.97845661640167236328e-01) (0, -2.07912862300872802734e-01) (1, -7.65751004219055175781e-01) (2, -3.97383153438568115234e-01) (3, -3.46143782138824462891e-01) (4, 1.04691231250762939453e+00) (5, 1.32019206881523132324e-01) (6, 4.07108396291732788086e-01) (0, 6.92288577556610107422e-01) (1, 1.20484447479248046875e+00) (2, 2.50930637121200561523e-01) (3, 6.39090165495872497559e-02) (4, 7.27426469326019287109e-01) (5, 8.87681066989898681641e-01) (6, 9.57442164421081542969e-01) (0, -2.03365132212638854980e-01) (1, -7.38756597042083740234e-01) (2, -2.64857441186904907227e-01) (3, -2.67857581377029418945e-01) (4, 1.30231052637100219727e-01) (5, 7.48236477375030517578e-02) (6, -3.88800412416458129883e-01) (0, 1.11469924449920654297e-01) (1, 2.80270546674728393555e-01) (2, 8.39354455471038818359e-01) (3, 1.66034948825836181641e+00) (4, -5.77753126621246337891e-01) (5, -1.02612219750881195068e-01) (6, 1.61661013960838317871e-01) (0, -3.88529926538467407227e-01) (1, -1.10075426101684570312e+00) (2, -4.05610442161560058594e-01) (3, -2.08739176392555236816e-01) (4, 1.86588808894157409668e-01) (5, 5.75227677822113037109e-01) (6, -3.29085588455200195312e-01) (0, 4.80400234460830688477e-01) (1, -2.88306266069412231445e-01) (2, 6.77977323532104492188e-01) (3, 3.40872079133987426758e-01) (4, 3.11773836612701416016e-01) (5, 2.87892609834671020508e-01) (6, 4.10260021686553955078e-01) (0, 6.58507466316223144531e-01) (1, 6.28512084484100341797e-01) (2, 5.74439585208892822266e-01) (3, 1.85308730602264404297e+00) (4, -6.93011045455932617188e+00) (5, -2.67953783273696899414e-01) (6, -1.26529365777969360352e-01) (0, -1.96637377142906188965e-01) (1, -7.52743065357208251953e-01) (2, 9.85549837350845336914e-02) (3, 6.05856478214263916016e-01) (4, 4.95738893747329711914e-01) (5, 4.71122831106185913086e-01) (6, -5.07403314113616943359e-01) (0, 2.28425592184066772461e-01) (1, 6.82934224605560302734e-01) (2, 1.38406002521514892578e+00) (3, -4.18322324752807617188e-01) (4, -1.04888901114463806152e-02) (5, -4.60317641496658325195e-01) (6, 2.57518082857131958008e-01) (0, 3.22064548730850219727e-01) (1, 2.72916227579116821289e-01) (2, 7.39240050315856933594e-01) (3, 2.01433345675468444824e-01) (4, 3.56043577194213867188e-01) (5, -5.28348565101623535156e-01) (6, 4.05255913734436035156e-01) (0, 6.87490880489349365234e-01) (1, 1.51690721511840820312e+00) (2, 6.68982803821563720703e-01) (3, 6.86938881874084472656e-01) (4, 2.35948786139488220215e-01) (5, -9.29378122091293334961e-02) (6, 7.37813889980316162109e-01) (0, 8.45042988657951354980e-03) (1, 3.10432501137256622314e-02) (2, 3.54644805192947387695e-01) (3, 2.11908507347106933594e+00) (4, -6.66416645050048828125e+00) (5, 9.44194436073303222656e-01) (6, -7.11466893553733825684e-02) (0, 5.41228652000427246094e-01) (1, 2.05748462677001953125e+00) (2, 1.94030582904815673828e-01) (3, 7.90395587682723999023e-02) (4, 1.40184843540191650391e+00) (5, 1.84619641304016113281e+00) (6, 7.06454277038574218750e-01) (0, 3.33863765001296997070e-01) (1, 4.29565727710723876953e-01) (2, 1.27124652266502380371e-01) (3, -5.85895061492919921875e-01) (4, 3.31614553928375244141e-01) (5, 1.58551968634128570557e-02) (6, 3.88194799423217773438e-01) (0, -6.51576742529869079590e-02) (1, -8.15812885761260986328e-01) (2, -7.83631265163421630859e-01) (3, -1.81158542633056640625e+00) (4, 4.58165979385375976562e+00) (5, -1.07787406444549560547e+00) (6, 2.28810653090476989746e-01) (0, 3.79676401615142822266e-01) (1, 5.65620183944702148438e-01) (2, 2.18157052993774414062e-01) (3, -6.52357578277587890625e-01) (4, 2.71636158227920532227e-01) (5, -4.10223565995693206787e-02) (6, 4.13402169942855834961e-01) (0, -2.88734853267669677734e-01) (1, 2.68836528062820434570e-01) (2, 1.90296098589897155762e-01) (3, 1.93959802389144897461e-01) (4, 1.11989110708236694336e-01) (5, -3.54807078838348388672e-01) (6, 3.00646215677261352539e-01) (0, 7.68332257866859436035e-02) (1, -4.56142097711563110352e-01) (2, 6.98697686195373535156e-01) (3, 5.54281759262084960938e+00) (4, -2.62465691566467285156e+00) (5, 2.08402931690216064453e-01) (6, -2.16276068240404129028e-02) (0, 3.87687534093856811523e-01) (1, -1.41984269022941589355e-01) (2, 6.72282695770263671875e-01) (3, 4.16730850934982299805e-01) (4, 3.19840133190155029297e-01) (5, 3.35133463144302368164e-01) (6, 2.99661487340927124023e-01) (0, 5.00877909362316131592e-02) (1, -7.75114238262176513672e-01) (2, 1.11347615718841552734e-01) (3, 1.65813952684402465820e-01) (4, 3.54633897542953491211e-01) (5, 3.14800143241882324219e-01) (6, 4.11074101924896240234e-01) (0, 6.06186687946319580078e-01) (1, 1.44974076747894287109e+00) (2, 3.02778363227844238281e-01) (3, 8.10817658901214599609e-01) (4, 7.36913263797760009766e-01) (5, 1.01300299167633056641e+00) (6, 1.14540290832519531250e+00) (0, 2.41306871175765991211e-01) (1, -5.45012727379798889160e-02) (2, -3.90525966882705688477e-01) (3, -1.11489129066467285156e+00) (4, 3.52907776832580566406e-01) (5, 2.22970739006996154785e-01) (6, 7.98471793532371520996e-02) (0, -5.59040978550910949707e-02) (1, -6.81359112262725830078e-01) (2, -2.56625443696975708008e-01) (3, -1.59061992168426513672e+00) (4, 1.09676063060760498047e+00) (5, 1.16816043853759765625e+00) (6, -1.20844371616840362549e-01) (0, 3.25090318918228149414e-01) (1, -1.11602413654327392578e+00) (2, 4.16861951351165771484e-01) (3, 3.18982869386672973633e-01) (4, 6.73033416271209716797e-01) (5, 3.10236811637878417969e-01) (6, 4.21139329671859741211e-01) (0, -2.41801068186759948730e-01) (1, 1.75592765212059020996e-01) (2, 8.15111041069030761719e-01) (3, 1.00130665302276611328e+00) (4, -9.41550731658935546875e-01) (5, -6.56129745766520500183e-03) (6, 1.59569606184959411621e-02) (0, -2.04188629984855651855e-01) (1, -3.22364211082458496094e-01) (2, 2.25526124238967895508e-01) (3, 2.49972984194755554199e-01) (4, -6.04956150054931640625e-01) (5, 1.53584146499633789062e+00) (6, -2.79477328062057495117e-01) (0, 5.23323118686676025391e-01) (1, 1.46694946289062500000e+00) (2, 4.29778397083282470703e-01) (3, -1.44839544296264648438e+01) (4, 1.01792454719543457031e+00) (5, 7.27699875831604003906e-01) (6, 5.41148841381072998047e-01) (0, -9.60096567869186401367e-02) (1, -4.16069149971008300781e-01) (2, 9.06303524971008300781e-01) (3, 1.74825441837310791016e+00) (4, -3.41306000947952270508e-01) (5, 2.13968344032764434814e-02) (6, -2.19409465789794921875e-01) (0, -1.67122542858123779297e-01) (1, -2.49831438064575195312e-01) (2, 1.87622845172882080078e-01) (3, 7.53704547882080078125e-01) (4, -3.09869647026062011719e-01) (5, -1.88495564460754394531e+00) (6, -1.95984482765197753906e-01) (0, 4.84946727752685546875e-01) (1, -2.98797935247421264648e-01) (2, 2.67379969358444213867e-01) (3, 1.26220064163208007812e+01) (4, -4.78111743927001953125e+00) (5, -2.09190040826797485352e-01) (6, -2.30177685618400573730e-01) (0, 5.79743366688489913940e-03) (1, -1.98090171813964843750e+00) (2, -7.70609557628631591797e-01) (3, -7.68817424774169921875e-01) (4, 1.09852981567382812500e+00) (5, -1.58410042524337768555e-01) (6, 2.27840662002563476562e-01) (0, 7.48716413974761962891e-01) (1, 1.39469218254089355469e+00) (2, 2.12570762634277343750e+00) (3, -2.80727833509445190430e-01) (4, -3.83952766656875610352e-01) (5, 8.58555853366851806641e-01) (6, 2.06450186669826507568e-02) (0, -2.91641661897301673889e-03) (1, -1.88350021839141845703e-01) (2, -6.28402829170227050781e-02) (3, -9.99899357557296752930e-02) (4, -5.68524263799190521240e-02) (5, -1.00056724622845649719e-02) (6, -1.39270618557929992676e-01) (0, -2.48507797718048095703e-01) (1, -5.26229977607727050781e-01) (2, 2.12316125631332397461e-01) (3, 1.66125297546386718750e+00) (4, -3.52619647979736328125e-01) (5, 5.57758092880249023438e-01) (6, -3.68246108293533325195e-01) (7, 1.88846832275390625000e+02) (8, 1.36225433349609375000e+02) (9, 6.58488464355468750000e+02) (10, 2.47260147094726562500e+02) (11, 9.52605163574218750000e+02) (12, 3.15005554199218750000e+02) (13, 1.18446044921875000000e+03) (14, 1.89062515258789062500e+02) (15, 8.90769531250000000000e+02) (16, 3.18924957275390625000e+02) (17, 2.48240295410156250000e+02) (18, 1.36299331665039062500e+02) (19, 2.47208114624023437500e+02) (20, 8.27216857910156250000e+02) (21, 1.88988037109375000000e+02) (22, 3.36975830078125000000e+02) (23, 9.65639038085937500000e+02) (24, 1.92008132934570312500e+02) (25, 1.88877014160156250000e+02) (26, 4.77077453613281250000e+02) (27, 1.89048049926757812500e+02) (28, 1.88934646606445312500e+02) (29, 2.47182891845703125000e+02) (30, 1.50000000000000000000e+03) (31, 5.95424560546875000000e+02) (32, 1.89053283691406250000e+02) (33, 3.70683288574218750000e+02) (34, 1.35353134155273437500e+02) (35, 1.50000000000000000000e+03) (36, 4.84053131103515625000e+02) (37, 6.61991149902343750000e+02) (38, 5.24846679687500000000e+02) (39, 4.50489990234375000000e+02) (40, 3.21606597900390625000e+02) (41, 7.12939453125000000000e+02) (42, 5.22617858886718750000e+02) (43, 2.47314697265625000000e+02) (7, 1.96553361415863037109e+00) (8, 1.36115893721580505371e-01) (9, -2.36589630126953125000e+02) (10, 3.07252313941717147827e-02) (11, 3.25455784797668457031e+00) (12, 1.83583652973175048828e+00) (13, 3.27865529060363769531e+00) (14, 5.17243385314941406250e-01) (15, 4.16089134216308593750e+01) (16, 2.34420680999755859375e+00) (17, 4.00014609098434448242e-01) (18, 5.73602199554443359375e-01) (19, 1.89220488071441650391e-01) (20, 9.87338638305664062500e+01) (21, 4.12051007151603698730e-02) (22, 8.48764801025390625000e+01) (23, 8.67290725708007812500e+01) (24, 1.46632165908813476562e+01) (25, 7.86276221275329589844e-01) (26, 1.86720347404479980469e+00) (27, 7.59426593780517578125e-01) (28, 3.69715362787246704102e-01) (29, 3.80852743983268737793e-02) (30, 3.29135119915008544922e-01) (31, 1.15242519378662109375e+01) (32, 4.43917274475097656250e-01) (33, 3.45609855651855468750e+00) (34, 1.28062194824218750000e+02) (35, 2.75579363107681274414e-01) (36, 2.17629241943359375000e+00) (37, 1.83347320556640625000e+01) (38, 8.25591087341308593750e-01) (39, 5.93346548080444335938e+00) (40, 1.95392072200775146484e+00) (41, 4.71484631299972534180e-01) (42, 7.88394975662231445312e+00) (43, 1.72855645418167114258e-01) (7, 1.31984174251556396484e+00) (8, -3.41260552406311035156e-01) (9, 1.40920984745025634766e+00) (10, -3.89961034059524536133e-01) (11, 9.17782306671142578125e-01) (12, -2.67476767301559448242e-01) (13, 1.09563171863555908203e+00) (14, 1.21082499623298645020e-01) (15, -1.70761454105377197266e+00) (16, 1.46141004562377929688e+00) (17, -5.08896493911743164062e+00) (18, 7.58310332894325256348e-02) (19, -4.04768645763397216797e-01) (20, -4.75613641738891601562e+00) (21, -2.89104849100112915039e-01) (22, -1.20900118350982666016e+00) (23, 7.95052671432495117188e+00) (24, -3.14005637168884277344e+00) (25, 9.87782329320907592773e-02) (26, 2.25530311465263366699e-01) (27, 1.64816349744796752930e-01) (28, 7.17392742633819580078e-01) (29, -3.18365007638931274414e-01) (30, 5.44950485229492187500e-01) (31, 7.62509822845458984375e-01) (32, 1.45685940980911254883e-01) (33, -3.41167271137237548828e-01) (34, -2.03660607337951660156e+00) (35, -6.80078387260437011719e-01) (36, 6.38783872127532958984e-01) (37, 6.63774788379669189453e-01) (38, 8.17422294616699218750e+00) (39, 4.56071972846984863281e-01) (40, -1.40100169181823730469e+00) (41, 3.28835397958755493164e-01) (42, 1.37794804573059082031e+00) (43, -3.34797561168670654297e-01) 
